svm_type c_svc
kernel_type linear
nr_class 2
total_sv 120
rho 1.00016
label 1 -1
nr_sv 58 62
SV
1 1:1 18:1 28:1 38:1 
1 1:1 18:1 28:1 38:1 
1 3:1 20:1 38:1 
1 6:1 7:1 18:1 38:1 
1 7:1 18:1 38:1 
1 8:1 20:1 22:1 38:1 
0.5000000000000002 10:1 18:1 19:1 38:1 
1 1:1 18:1 28:1 38:1 
1 12:1 18:1 38:1 
1 14:1 20:1 22:1 38:1 
1 14:1 20:1 22:1 38:1 
1 15:1 18:1 20:1 32:1 38:1 
1 16:1 20:1 38:1 
0.001860923553296701 17:1 38:1 
1 17:1 38:1 
1 8:1 20:1 38:1 
1 14:1 20:1 22:1 38:1 
1 18:1 38:1 
1 7:1 18:1 19:1 38:1 
1 20:1 38:1 
1 21:1 38:1 
0.9985967315663525 17:1 38:1 
1 20:1 22:1 38:1 
1 12:1 18:1 38:1 
1 21:1 38:1 
1 14:1 20:1 38:1 
1 18:1 23:1 38:1 
1 20:1 24:1 38:1 
1 20:1 26:1 38:1 
1 27:1 38:1 
0.1249446665392943 3:1 4:1 20:1 22:1 26:1 31:1 38:1 40:1 
1 28:1 38:1 
0.2500347232428974 4:1 16:1 20:1 22:1 26:1 38:1 
1 15:1 32:1 38:1 
1 21:1 38:1 
1 21:1 38:1 
1 20:1 25:1 38:1 
1 20:1 25:1 38:1 
1 2:1 18:1 20:1 28:1 38:1 
1 2:1 20:1 28:1 38:1 
1 20:1 22:1 30:1 38:1 
1 18:1 20:1 31:1 38:1 
1 20:1 32:1 38:1 
1 6:1 7:1 18:1 21:1 33:1 35:1 38:1 
1 13:1 20:1 38:1 
1 20:1 22:1 30:1 38:1 
0.9993940916734393 7:1 18:1 20:1 31:1 33:1 38:1 39:1 
1 18:1 20:1 34:1 38:1 
0.3331413259232532 1:1 7:1 18:1 33:1 35:1 38:1 
1 18:1 20:1 36:1 38:1 
1 16:1 20:1 38:1 
1 18:1 20:1 37:1 38:1 
0.4999999999999998 11:1 18:1 34:1 38:1 
1 38:1 
1 38:1 39:1 
1 13:1 20:1 38:1 
0.3336333847447562 1:1 9:1 18:1 38:1 
1 20:1 38:1 40:1 
-1 20:1 38:1 40:1 
-0.1242610296671844 18:1 20:1 31:1 38:1 
-0.08836211790143975 20:1 21:1 38:1 
-1 16:1 20:1 38:1 
-1 15:1 18:1 32:1 38:1 
-0.4164021164021162 18:1 28:1 38:1 
-0.7334748085048682 20:1 32:1 38:1 
-1 1:1 7:1 18:1 20:1 31:1 38:1 
-1 21:1 38:1 
-0.3505495677923661 20:1 22:1 38:1 
-1 20:1 22:1 38:1 
-0.86565149495243 18:1 20:1 38:1 
-1 14:1 18:1 38:1 
-1 20:1 26:1 38:1 
-1 20:1 22:1 38:1 
-1 20:1 22:1 38:1 
-1 18:1 20:1 38:1 
-1 18:1 20:1 28:1 38:1 
-0.5835978835978838 20:1 28:1 38:1 
-1 20:1 28:1 38:1 
-1 18:1 28:1 38:1 
-1 28:1 38:1 
-1 14:1 20:1 22:1 38:1 
-1 14:1 20:1 22:1 38:1 
-1 20:1 22:1 38:1 
-0.6036794419793827 20:1 38:1 
-1 20:1 38:1 
-1 18:1 20:1 38:1 
-1 20:1 38:1 
-1 20:1 38:1 
-0.02575906528269375 18:1 20:1 22:1 38:1 
-1 20:1 38:1 
-1 20:1 38:1 
-1 21:1 38:1 
-1 20:1 38:1 
-1 20:1 38:1 
-1 21:1 38:1 
-0.9848327247310239 21:1 38:1 
-1 1:1 6:1 7:1 18:1 20:1 33:1 35:1 38:1 
-0.2676575301979522 7:1 18:1 21:1 32:1 33:1 38:1 
-0.9987580260994158 20:1 22:1 38:1 
-0.999220731008577 15:1 18:1 32:1 38:1 
-0.03332773460464433 38:1 
-1 28:1 38:1 
-1 7:1 18:1 20:1 31:1 33:1 38:1 
-1 38:1 
-1 38:1 
-1 20:1 38:1 
-1 38:1 
-1 20:1 38:1 
-0.06476117590156863 7:1 18:1 33:1 38:1 
-1 23:1 38:1 
-1 7:1 18:1 38:1 
-1 7:1 18:1 38:1 
-0.9988238975794157 38:1 
-0.6589504072108229 18:1 21:1 38:1 
-0.2700502972107912 18:1 38:1 
-1 18:1 38:1 
-1 18:1 38:1 
-1 18:1 38:1 
-1 18:1 38:1 
-0.9734857966187134 18:1 38:1 
