svm_type c_svc
kernel_type linear
nr_class 2
total_sv 152
rho 0.99986
label 1 -1
nr_sv 79 73
SV
1 3:1 27:1 
1 4:1 
0.9186505344448348 2:1 
1 2:1 48:1 
1 2:1 
1 4:1 8:1 48:1 
0.1879309062506728 4:1 8:1 37:1 48:1 
1 4:1 8:1 48:1 
0.2972635156489408 5:1 33:1 48:1 
1 10:1 26:1 
1 10:1 26:1 
0.8361752859176416 9:1 26:1 
1 12:1 26:1 
0.7502545577268154 13:1 26:1 52:1 54:1 
1 15:1 39:1 
1 11:1 16:1 26:1 39:1 48:1 
1 14:1 22:1 39:1 
1 4:1 17:1 
1 18:1 26:1 39:1 
1 19:1 39:1 48:1 58:1 
1 15:1 21:1 27:1 
1 22:1 25:1 27:1 39:1 44:1 
0.0001886207534194943 4:1 6:1 14:1 22:1 25:1 26:1 27:1 40:1 44:1 60:1 
0.5 23:1 24:1 27:1 
1 24:1 
1 25:1 27:1 39:1 44:1 
1 26:1 
1 27:1 
1 28:1 
0.2963605240791013 29:1 33:1 
1 15:1 21:1 39:1 
1 27:1 30:1 
0.06223536857167127 4:1 6:1 14:1 22:1 25:1 27:1 44:1 
1 3:1 27:1 31:1 62:1 
0.7809349875389189 4:1 6:1 11:1 32:1 
1 33:1 
1 29:1 33:1 
1 34:1 
1 29:1 33:1 
1 33:1 
1 2:1 48:1 
1 33:1 
1 9:1 26:1 48:1 
0.9990499005964142 1:1 26:1 28:1 43:1 47:1 58:1 
1 39:1 
1 41:1 
0.3306037367320528 3:1 27:1 44:1 62:1 
0.9819730025349549 3:1 27:1 44:1 62:1 
1 20:1 39:1 42:1 
0.07919079911102597 2:1 4:1 6:1 17:1 34:1 41:1 59:1 
1 46:1 
1 27:1 35:1 
1 48:1 
1 27:1 49:1 
1 27:1 35:1 
1 26:1 41:1 51:1 
1 15:1 39:1 41:1 52:1 
1 36:1 
1 26:1 34:1 47:1 53:1 
1 39:1 48:1 52:1 54:1 
1 27:1 55:1 
1 18:1 26:1 39:1 
1 36:1 
1 57:1 
1 58:1 
0.001847498057415671 2:1 26:1 41:1 43:1 
0.1094694260083054 33:1 37:1 48:1 
0.0005754724616511658 27:1 30:1 41:1 51:1 
0.3745546767162385 13:1 15:1 20:1 26:1 39:1 42:1 52:1 
1 26:1 60:1 
0.4861068258720108 27:1 34:1 39:1 56:1 
0.1639884254577833 9:1 26:1 39:1 
1 27:1 
1 12:1 26:1 
0.6815004711203455 27:1 39:1 56:1 
1 9:1 26:1 39:1 
0.833379705764429 27:1 39:1 56:1 
1 27:1 62:1 
1 27:1 62:1 
-1 33:1 58:1 
-1 33:1 
-1 4:1 8:1 17:1 48:1 
-1 3:1 27:1 62:1 
-1 3:1 27:1 62:1 
-1 20:1 39:1 
-1 27:1 31:1 62:1 
-0.4349846471488739 26:1 39:1 
-0.9990531698489217 19:1 39:1 48:1 
-1 26:1 39:1 
-0.3732699032486971 15:1 26:1 27:1 39:1 48:1 
-1 15:1 21:1 22:1 25:1 27:1 39:1 44:1 52:1 
-1 15:1 
-1 4:1 
-1 26:1 39:1 
-1 27:1 
-1 26:1 27:1 39:1 52:1 
-1 27:1 
-1 13:1 26:1 27:1 39:1 48:1 52:1 
-1 39:1 
-1 39:1 
-1 29:1 
-1 4:1 
-1 11:1 
-0.1041464015336608 26:1 
-1 26:1 
-0.9984073157818999 47:1 48:1 
-1 26:1 
-1 9:1 26:1 39:1 
-1 26:1 
-1 26:1 
-1 33:1 
-1 15:1 21:1 27:1 
-1 27:1 
-1 43:1 
-1 39:1 
-1 26:1 
-1 22:1 25:1 27:1 39:1 44:1 
-0.3921495053472765 26:1 48:1 
-0.5950345528840684 4:1 17:1 
-1 28:1 47:1 58:1 
-1 48:1 
-1 2:1 48:1 
-1 27:1 
-0.2959728038369011 41:1 
-1 15:1 26:1 27:1 39:1 
-1 29:1 41:1 48:1 
-0.9109242966423206 39:1 
-1 27:1 
-0.6968118862907631 34:1 
-1 26:1 39:1 60:1 
-0.9989088275188779 28:1 
-0.8690377305951329 34:1 
-1 26:1 
-1 27:1 
-1 27:1 
-1 4:1 6:1 
-0.5037708939651285 27:1 
-1 26:1 
-1 33:1 
-1 27:1 44:1 62:1 
-0.8215156541656298 26:1 39:1 
-1 46:1 
-0.7862233233770366 41:1 
-0.05986211805777808 
-1 
-1 2:1 34:1 41:1 48:1 
-1 
-0.8321612111216763 48:1 
-1 
-1 
-1 
-1 
