svm_type c_svc
kernel_type linear
nr_class 2
total_sv 148
rho 1.00002
label 1 -1
nr_sv 78 70
SV
1 3:1 27:1 
1 4:1 
0.8458737567007737 2:1 
1 2:1 
1 2:1 
0.8049339216085254 4:1 8:1 23:1 
0.9328750215578649 9:1 18:1 
0.0004758713020396574 4:1 8:1 23:1 37:1 
1 4:1 8:1 
0.3329612149799257 5:1 33:1 
1 10:1 
1 10:1 
1 9:1 18:1 
1 12:1 
1 13:1 51:1 
1 15:1 39:1 
0.6661334171757483 11:1 16:1 18:1 39:1 
1 14:1 22:1 39:1 
1 4:1 17:1 
0.04519974055293835 18:1 39:1 56:1 
0.3105265869221566 19:1 39:1 56:1 60:1 
1 3:1 15:1 21:1 27:1 
1 3:1 22:1 25:1 27:1 39:1 44:1 
0.0973807575064396 23:1 24:1 27:1 
1 24:1 
1 3:1 25:1 27:1 39:1 44:1 
1 26:1 
1 27:1 
1 28:1 
0.3344136131722438 29:1 33:1 
1 15:1 21:1 39:1 
1 27:1 30:1 
1 3:1 27:1 31:1 
1 4:1 6:1 11:1 32:1 
1 33:1 
1 29:1 33:1 
1 34:1 
0.999205201346356 29:1 33:1 
1 33:1 
1 36:1 
1 2:1 
1 33:1 
1 1:1 28:1 43:1 60:1 
1 39:1 
0.2310397531853706 3:1 27:1 30:1 31:1 41:1 50:1 
1 41:1 
1 3:1 27:1 31:1 44:1 
1 3:1 27:1 31:1 44:1 
1 20:1 39:1 42:1 
1 47:1 
0.9996315314565003 27:1 35:1 
1 27:1 35:1 
1 26:1 
0.1985453242081839 3:1 14:1 17:1 20:1 22:1 25:1 27:1 39:1 40:1 51:1 61:1 
1 27:1 48:1 52:1 
0.0005565704095889801 9:1 18:1 27:1 49:1 
0.4611483052210316 36:1 41:1 50:1 
1 15:1 39:1 41:1 51:1 
1 52:1 
1 34:1 53:1 
0.4215412209850304 9:1 39:1 51:1 54:1 
1 27:1 55:1 
1 39:1 56:1 
1 46:1 52:1 
1 59:1 
1 60:1 
0.1541262432992262 2:1 41:1 43:1 
0.250287012867827 4:1 17:1 20:1 38:1 39:1 42:1 
0.02336270148508168 1:1 11:1 17:1 28:1 60:1 61:1 63:1 
0.02571845206541936 13:1 15:1 20:1 39:1 42:1 51:1 
1 62:1 
0.9003258990119385 27:1 34:1 39:1 57:1 
1 27:1 
1 12:1 
0.8181818181818181 27:1 39:1 57:1 
0.2814922828062436 27:1 39:1 57:1 
1 3:1 27:1 31:1 
1 3:1 27:1 31:1 
-1 33:1 60:1 
-1 33:1 
-1 4:1 8:1 17:1 
-1 31:1 
-1 3:1 27:1 31:1 
-1 3:1 27:1 31:1 
-1 20:1 39:1 
-1 3:1 27:1 41:1 52:1 
-1 3:1 27:1 31:1 
-1 18:1 39:1 
-0.3253025083545363 27:1 
-0.02553369727519708 15:1 27:1 39:1 
-1 3:1 15:1 21:1 22:1 25:1 27:1 39:1 44:1 51:1 
-1 15:1 
-1 4:1 
-1 27:1 
-0.4218965645257386 3:1 25:1 27:1 39:1 51:1 
-1 13:1 27:1 39:1 51:1 
-1 27:1 39:1 
-1 29:1 
-1 4:1 
-1 11:1 
-1 9:1 18:1 39:1 
-1 33:1 
-1 3:1 15:1 21:1 27:1 
-1 27:1 
-1 43:1 
-1 3:1 22:1 25:1 27:1 39:1 44:1 
-0.7641836088093871 4:1 17:1 
-1 28:1 60:1 
-1 2:1 
-0.7466006902144634 27:1 39:1 
-0.06291836973254487 28:1 
-1 3:1 27:1 
-1 15:1 27:1 39:1 52:1 
-1 29:1 41:1 
-0.7465830175662755 39:1 
-0.007926216142608309 3:1 27:1 
-1 34:1 
-0.9998145591319963 39:1 62:1 
-0.9607301440083602 28:1 
-0.9002759942637345 34:1 
-1 39:1 
-1 27:1 
-1 27:1 
-1 4:1 6:1 
-1 27:1 
-1 33:1 
-1 3:1 27:1 31:1 44:1 
-0.977523226063632 39:1 
-0.1966476219197982 
-1 
-1 47:1 
-1 
-1 
-1 
-1 
-1 
-1 
-1 
-1 
-1 
-1 
-1 2:1 26:1 34:1 41:1 
-1 
-1 
-1 
-1 
-1 
-1 
