svm_type c_svc
kernel_type linear
nr_class 2
total_sv 193
rho 1.00025
label 1 -1
nr_sv 96 97
SV
1 2:1 
1 4:1 31:1 58:1 71:1 
1 5:1 
1 2:1 
1 2:1 
1 5:1 8:1 14:1 21:1 22:1 49:1 
1 2:1 
1 3:1 32:1 40:1 49:1 68:1 
0.564822806035619 5:1 8:1 14:1 21:1 22:1 40:1 49:1 
1 5:1 8:1 14:1 21:1 22:1 40:1 49:1 
1 5:1 13:1 
1 14:1 
1 7:1 30:1 47:1 
1 7:1 30:1 47:1 
0.06589913064433325 9:1 30:1 40:1 44:1 47:1 
0.4342377903636807 9:1 30:1 44:1 47:1 
1 16:1 30:1 47:1 
1 17:1 30:1 47:1 
1 19:1 47:1 
0.0001659979528100735 20:1 30:1 38:1 47:1 
1 18:1 47:1 
1 5:1 21:1 
0.640284556076032 22:1 30:1 47:1 65:1 
1 23:1 47:1 68:1 
0.3598651775696545 5:1 24:1 30:1 47:1 65:1 
1 19:1 25:1 31:1 34:1 58:1 
1 26:1 29:1 31:1 36:1 47:1 52:1 58:1 
0.2403561533628148 5:1 18:1 22:1 26:1 29:1 30:1 31:1 36:1 47:1 52:1 58:1 
1 28:1 
1 29:1 31:1 36:1 47:1 52:1 58:1 
1 30:1 
0.1136148161875666 1:1 3:1 12:1 14:1 30:1 32:1 40:1 49:1 68:1 
1 31:1 
1 32:1 
1 19:1 34:1 47:1 
1 31:1 36:1 
0.1483564421479417 5:1 18:1 22:1 26:1 29:1 31:1 36:1 47:1 52:1 58:1 
1 4:1 31:1 37:1 58:1 71:1 
1 5:1 22:1 38:1 
1 39:1 
1 40:1 
0.5001155728522463 33:1 39:1 
1 33:1 
0.05582100136038668 1:1 3:1 10:1 30:1 32:1 40:1 49:1 68:1 
1 42:1 
0.7553398250508934 6:1 10:1 14:1 40:1 
1 39:1 
1 30:1 44:1 47:1 
1 47:1 
1 5:1 20:1 30:1 47:1 
1 4:1 31:1 37:1 58:1 71:1 
1 4:1 31:1 37:1 49:1 58:1 71:1 
1 4:1 31:1 37:1 58:1 71:1 
1 49:1 
0.2639207342419057 2:1 12:1 30:1 
1 31:1 36:1 52:1 58:1 71:1 
1 5:1 21:1 24:1 30:1 47:1 50:1 
1 4:1 31:1 36:1 52:1 58:1 71:1 
0.4996182051375999 24:1 47:1 50:1 55:1 
0.3586666732868556 2:1 3:1 32:1 40:1 56:1 68:1 
1 1:1 3:1 30:1 32:1 39:1 68:1 
1 5:1 8:1 21:1 22:1 40:1 49:1 
1 57:1 
0.2013242469077461 31:1 41:1 
0.8000209757983521 41:1 
1 58:1 
0.4906892769560791 3:1 32:1 40:1 45:1 53:1 68:1 
1 31:1 36:1 
0.7381624388606032 27:1 30:1 31:1 47:1 59:1 
0.9986547772939018 41:1 
0.2621518294902078 27:1 30:1 47:1 59:1 
0.9422747267780461 30:1 47:1 49:1 60:1 
1 19:1 47:1 49:1 61:1 
0.0003676725176489079 42:1 62:1 
0.9999427977857188 48:1 62:1 
1 30:1 40:1 51:1 
1 47:1 63:1 
1 31:1 58:1 64:1 
1 30:1 47:1 65:1 
0.7546450341610453 47:1 66:1 
1 30:1 47:1 49:1 60:1 
1 67:1 
1 68:1 
1 12:1 30:1 49:1 
0.05756639162804146 31:1 49:1 60:1 
0.0004910401169988009 17:1 19:1 22:1 24:1 30:1 47:1 50:1 55:1 61:1 69:1 
1 30:1 47:1 70:1 
1 32:1 40:1 53:1 68:1 
1 31:1 
1 16:1 30:1 47:1 
0.1103603065056405 5:1 18:1 22:1 26:1 29:1 31:1 36:1 47:1 52:1 57:1 58:1 
0.2552512167327606 31:1 47:1 66:1 
1 11:1 30:1 35:1 47:1 
0.9904304169610162 31:1 47:1 66:1 
1 31:1 58:1 71:1 
1 31:1 58:1 71:1 
-1 3:1 68:1 
-1 4:1 31:1 58:1 71:1 
-1 4:1 31:1 58:1 71:1 
-1 30:1 31:1 40:1 47:1 49:1 58:1 71:1 
-1 4:1 31:1 37:1 58:1 71:1 
-0.548427901189999 31:1 32:1 
-0.9990266630999978 19:1 25:1 26:1 29:1 31:1 34:1 36:1 47:1 52:1 58:1 61:1 
-0.5011084145750347 19:1 47:1 
-1 30:1 31:1 47:1 58:1 71:1 
-1 4:1 31:1 37:1 58:1 
-0.5011236094836147 17:1 30:1 31:1 47:1 58:1 61:1 63:1 
-0.4985348945041632 30:1 31:1 47:1 58:1 63:1 
-1 4:1 37:1 58:1 
-0.2182712295153653 30:1 40:1 
-1 39:1 
-1 8:1 21:1 22:1 30:1 47:1 
-0.001826660366827504 19:1 25:1 31:1 34:1 58:1 
-1 12:1 47:1 
-1 26:1 29:1 31:1 36:1 47:1 52:1 58:1 
-0.3000123598911575 5:1 21:1 
-0.01941286058748325 32:1 68:1 
-1 2:1 
-0.5624375689469757 30:1 31:1 40:1 47:1 49:1 
-1 31:1 36:1 
-0.0695256047095895 5:1 22:1 
-1 39:1 
-1 31:1 36:1 52:1 58:1 71:1 
-0.4996536629573336 19:1 31:1 36:1 47:1 
-1 4:1 19:1 31:1 36:1 37:1 47:1 52:1 58:1 71:1 
-0.8832512819164611 5:1 
-1 3:1 32:1 40:1 49:1 68:1 
-1 14:1 40:1 49:1 
-1 31:1 49:1 58:1 71:1 
-0.101995984087805 31:1 49:1 58:1 
-0.9978519280992429 30:1 40:1 
-0.1101231773328555 47:1 57:1 
-1 5:1 21:1 
-0.6 31:1 58:1 
-1 2:1 14:1 
-1 14:1 47:1 
-0.6286632768502508 40:1 49:1 
-1 5:1 
-1 32:1 68:1 
-1 30:1 49:1 
-0.4406291273573578 49:1 
-0.9824155884665168 31:1 47:1 
-0.9974846948966822 40:1 
-1 5:1 21:1 24:1 30:1 47:1 
-1 5:1 22:1 
-0.1416285081857888 31:1 58:1 
-0.6546315618029555 58:1 
-1 39:1 
-0.8682118807118807 30:1 
-0.9987963826216557 19:1 32:1 34:1 
-1 2:1 
-1 5:1 22:1 
-0.9206847743313188 30:1 
-0.5619869333889038 5:1 22:1 30:1 47:1 
-0.7958282795806634 22:1 30:1 47:1 
-0.2100681721825884 5:1 22:1 47:1 
-0.9997444093714171 5:1 
-0.4522228587011176 32:1 
-1 57:1 
-0.02191217741362103 22:1 
-0.9991288158674074 68:1 
-0.3051775935254377 31:1 
-0.4021412896824509 5:1 21:1 30:1 47:1 
-0.860176210678488 21:1 24:1 30:1 47:1 
-1 3:1 32:1 40:1 49:1 68:1 
-1 31:1 
-1 31:1 36:1 
-1 30:1 47:1 
-1 30:1 49:1 
-1 47:1 68:1 
-0.9968189243129791 5:1 30:1 47:1 
-1 5:1 8:1 14:1 21:1 22:1 40:1 49:1 
-1 47:1 
-1 47:1 
-1 30:1 47:1 
-1 49:1 
-1 47:1 
-0.04495636029837197 22:1 47:1 
-1 30:1 47:1 
-1 30:1 47:1 
-0.9995303700224472 31:1 
-1 
-1 
-1 
-1 30:1 47:1 
-0.9830105964850314 47:1 
-0.9332230209811216 30:1 47:1 
-0.002123740707871136 21:1 
-1 
-1 
-1 
-1 
-0.9896386810759162 
