svm_type c_svc
kernel_type linear
nr_class 2
total_sv 269
rho 0.999945
label 1 -1
nr_sv 137 132
SV
1 2:1 15:1 46:1 
0.9146764918876402 4:1 15:1 50:1 
1 7:1 15:1 
1 8:1 15:1 
1 15:1 
1 15:1 18:1 69:1 94:1 112:1 
0.9055481675179371 7:1 15:1 17:1 69:1 85:1 112:1 
1 15:1 20:1 83:1 
1 21:1 
1 1:1 15:1 52:1 
1 15:1 25:1 
1 1:1 15:1 
1 26:1 
1 15:1 27:1 
1 7:1 15:1 30:1 40:1 44:1 46:1 77:1 85:1 89:1 104:1 
1 15:1 31:1 
1 15:1 32:1 46:1 
1 20:1 33:1 46:1 83:1 
0.02102773280479097 15:1 30:1 92:1 
1 15:1 34:1 
0.01910685879441926 35:1 99:1 108:1 
0.08215017628509209 15:1 36:1 46:1 52:1 56:1 
1 37:1 46:1 55:1 93:1 103:1 
0.160206634620523 15:1 16:1 52:1 63:1 77:1 78:1 102:1 
1 15:1 32:1 46:1 
1 15:1 40:1 
1 15:1 22:1 94:1 
1 15:1 20:1 83:1 
0.2977953347453844 15:1 39:1 103:1 
1 42:1 
0.6190286914585102 15:1 19:1 32:1 43:1 46:1 57:1 
1 15:1 40:1 44:1 
1 45:1 
1 15:1 46:1 93:1 
0.7201139675268959 15:1 39:1 71:1 84:1 94:1 103:1 
1 47:1 
1 48:1 
1 15:1 49:1 
1 50:1 
1 15:1 51:1 
1 15:1 51:1 
1 15:1 52:1 
0.9944052670873406 8:1 15:1 53:1 
1 15:1 46:1 54:1 77:1 
1 12:1 15:1 83:1 93:1 
1 55:1 
1 15:1 45:1 
0.01112314286102127 8:1 15:1 53:1 93:1 
0.08189965390479777 15:1 46:1 56:1 93:1 109:1 
1 15:1 57:1 77:1 
1 48:1 
0.9947123222696972 8:1 15:1 53:1 
0.07060450311387682 58:1 68:1 91:1 
1 15:1 60:1 
0.3333333333333333 15:1 27:1 52:1 61:1 77:1 82:1 
0.9808931412055808 15:1 35:1 99:1 108:1 
1 42:1 
1 15:1 60:1 
0.3331179213126604 10:1 15:1 88:1 
0.9200159947893035 15:1 52:1 63:1 116:1 
0.4353746645107174 15:1 64:1 113:1 
1 10:1 15:1 
0.837800845742382 68:1 114:1 
1 15:1 69:1 85:1 112:1 
1 15:1 70:1 93:1 
1 15:1 71:1 
0.9605481000449833 4:1 15:1 50:1 
1 15:1 57:1 
1 73:1 
0.00756186303689128 3:1 15:1 43:1 46:1 57:1 66:1 71:1 72:1 92:1 
1 15:1 75:1 83:1 
1 15:1 34:1 
1 15:1 77:1 
1 15:1 77:1 
1 70:1 
0.9819246405596594 15:1 39:1 103:1 
0.6668703618212452 5:1 8:1 15:1 76:1 
0.7546288232562527 15:1 19:1 46:1 56:1 57:1 71:1 93:1 
1 11:1 79:1 
0.831261289479463 15:1 55:1 80:1 97:1 
1 15:1 82:1 84:1 
1 15:1 83:1 
1 15:1 57:1 77:1 84:1 
1 15:1 77:1 85:1 
1 15:1 86:1 
1 15:1 25:1 87:1 102:1 
1 2:1 15:1 46:1 
1 26:1 
0.7202340087019801 6:1 15:1 25:1 87:1 102:1 
1 15:1 46:1 52:1 88:1 102:1 
1 15:1 77:1 89:1 104:1 
0.5844043539472217 15:1 80:1 90:1 
1 15:1 46:1 91:1 
0.9506620105519652 46:1 91:1 92:1 
1 93:1 
0.1818669570614893 15:1 21:1 49:1 52:1 55:1 71:1 74:1 77:1 83:1 97:1 114:1 
0.3648562720053977 15:1 24:1 34:1 69:1 
1 15:1 94:1 
0.5849857110214604 15:1 23:1 94:1 95:1 112:1 
0.07167053790232419 15:1 49:1 52:1 55:1 77:1 94:1 96:1 97:1 102:1 114:1 
1 46:1 91:1 92:1 
1 15:1 49:1 55:1 97:1 
0.6665955097288517 8:1 15:1 76:1 98:1 
1 15:1 46:1 99:1 
0.3751928404318411 2:1 15:1 46:1 47:1 
1 15:1 20:1 62:1 83:1 
0.5998055698771083 15:1 25:1 77:1 78:1 87:1 100:1 102:1 
1 15:1 102:1 
1 40:1 46:1 92:1 
1 103:1 
1 15:1 
1 15:1 77:1 104:1 
1 21:1 38:1 75:1 83:1 105:1 
1 15:1 60:1 
1 15:1 77:1 
0.2498237967320407 47:1 50:1 105:1 
1 106:1 
0.6398262444139866 6:1 15:1 77:1 107:1 
0.6024176589791366 7:1 15:1 22:1 44:1 46:1 71:1 77:1 85:1 89:1 94:1 104:1 112:1 
1 15:1 46:1 93:1 109:1 
1 6:1 15:1 52:1 
0.4993849802392951 15:1 55:1 93:1 95:1 97:1 112:1 
1 7:1 15:1 22:1 44:1 46:1 71:1 77:1 85:1 89:1 94:1 104:1 112:1 
1 15:1 105:1 
1 15:1 112:1 
1 15:1 89:1 104:1 113:1 
1 15:1 112:1 
0.7385101311603918 7:1 15:1 22:1 44:1 46:1 71:1 77:1 85:1 89:1 94:1 104:1 112:1 
1 15:1 89:1 104:1 113:1 
0.1293135459505025 15:1 22:1 40:1 44:1 46:1 64:1 71:1 75:1 83:1 94:1 117:1 
1 15:1 28:1 77:1 
0.3333633840023463 15:1 28:1 77:1 88:1 
1 15:1 57:1 77:1 
1 15:1 114:1 
1 36:1 
1 15:1 46:1 118:1 
0.6642107549515265 15:1 46:1 57:1 65:1 66:1 67:1 93:1 
-1 15:1 55:1 89:1 97:1 104:1 114:1 
-1 15:1 112:1 
-1 15:1 112:1 
-0.9984389436885053 15:1 40:1 52:1 77:1 104:1 
-1 15:1 83:1 93:1 
-0.3156769983556746 8:1 15:1 
-1 8:1 15:1 
-1 8:1 15:1 
-1 8:1 15:1 
-1 15:1 21:1 49:1 55:1 71:1 97:1 
-1 15:1 103:1 
-0.9471193415637861 15:1 94:1 102:1 
-0.6047980560860505 15:1 94:1 102:1 
-1 15:1 69:1 94:1 112:1 
-1 7:1 15:1 40:1 44:1 46:1 77:1 85:1 89:1 104:1 
-1 15:1 20:1 83:1 
-1 15:1 25:1 87:1 102:1 
-1 6:1 15:1 25:1 87:1 102:1 
-1 15:1 86:1 
-1 15:1 46:1 50:1 
-1 15:1 112:1 
-0.6632972446796375 15:1 83:1 
-1 15:1 77:1 113:1 
-1 15:1 57:1 77:1 
-1 15:1 52:1 60:1 
-1 15:1 46:1 91:1 
-0.1767330360219361 15:1 77:1 
-1 15:1 77:1 
-1 15:1 46:1 54:1 77:1 
-1 15:1 77:1 
-1 15:1 77:1 
-1 2:1 15:1 46:1 47:1 
-1 15:1 83:1 
-0.8666255170009847 15:1 52:1 57:1 77:1 
-1 15:1 57:1 77:1 
-0.7057712246254102 15:1 46:1 57:1 77:1 
-1 7:1 15:1 22:1 44:1 46:1 71:1 77:1 85:1 89:1 94:1 104:1 112:1 
-1 7:1 15:1 22:1 44:1 46:1 71:1 77:1 85:1 89:1 94:1 104:1 112:1 
-1 15:1 89:1 104:1 
-0.5 15:1 46:1 93:1 
-1 15:1 20:1 83:1 
-0.564106853664352 40:1 44:1 
-1 15:1 69:1 85:1 112:1 
-0.5668861403193547 40:1 44:1 
-1 15:1 21:1 49:1 57:1 71:1 
-1 15:1 46:1 75:1 83:1 93:1 
-0.4725487221933919 15:1 32:1 46:1 57:1 
-1 15:1 84:1 
-1 105:1 
-0.9320576895171789 15:1 46:1 55:1 
-1 99:1 
-0.9999064105276028 108:1 
-1 15:1 77:1 
-0.3684889582163903 15:1 52:1 77:1 
-0.6520311990933785 55:1 103:1 
-1 4:1 15:1 50:1 
-0.1478673148365942 15:1 32:1 46:1 
-1 15:1 103:1 
-0.5213639966710958 15:1 52:1 
-1 55:1 103:1 
-1 15:1 25:1 
-0.3419179124239691 15:1 89:1 104:1 
-0.01828946908846235 8:1 15:1 103:1 
-0.0002942125080066527 15:1 46:1 57:1 
-1 15:1 102:1 
-1 7:1 15:1 46:1 71:1 77:1 88:1 92:1 94:1 
-1 15:1 46:1 93:1 
-1 105:1 
-1 8:1 15:1 
-1 15:1 52:1 
-1 15:1 57:1 
-1 15:1 27:1 
-1 15:1 32:1 46:1 
-1 91:1 
-1 15:1 40:1 85:1 112:1 
-0.6479326265521064 83:1 
-1 15:1 92:1 
-0.5450363884144217 15:1 46:1 77:1 
-0.9987517668788 15:1 32:1 46:1 
-1 75:1 83:1 
-1 7:1 15:1 77:1 85:1 89:1 104:1 
-1 46:1 
-1 15:1 20:1 62:1 83:1 
-0.9792706688235465 15:1 93:1 
-1 15:1 84:1 
-0.3296259498106013 15:1 46:1 103:1 
-0.4271327636532563 15:1 46:1 71:1 84:1 
-1 15:1 93:1 
-0.5207966719083692 46:1 93:1 
-1 46:1 
-0.9945290891867127 15:1 52:1 
-1 15:1 34:1 69:1 
-0.4260027699680817 15:1 46:1 
-0.1875262090703041 15:1 
-0.3850184567489123 15:1 94:1 
-1 15:1 46:1 
-1 15:1 
-0.3394955866627177 44:1 
-0.8258214136223361 
-1 15:1 
-1 15:1 
-1 15:1 
-1 15:1 
-1 
-1 
-0.01111935251630579 93:1 
-1 
-1 
-1 15:1 
-1 15:1 46:1 
-1 15:1 
-1 15:1 
-1 15:1 46:1 93:1 
-1 93:1 
-1 15:1 
-1 15:1 
-1 
-1 
-1 15:1 
-1 
-1 
-1 
-1 15:1 
-1 
-1 15:1 
-1 15:1 
-1 15:1 
-1 15:1 
-1 15:1 
-0.9105752367310312 15:1 94:1 
-1 
-1 15:1 
