svm_type c_svc
kernel_type linear
nr_class 2
total_sv 173
rho 1.0001
label 1 -1
nr_sv 88 85
SV
1 2:1 
1 3:1 49:1 51:1 
1 4:1 
1 2:1 
0.8335618591984226 2:1 29:1 
0.02057908527977858 2:1 49:1 
0.7755270675729816 4:1 8:1 26:1 
1 9:1 29:1 
1 9:1 29:1 
1 4:1 8:1 
0.1319471399010247 5:1 29:1 36:1 
1 10:1 29:1 
1 10:1 
1 9:1 
0.1316499032739254 5:1 9:1 11:1 12:1 13:1 29:1 37:1 49:1 53:1 
0.07825936200729836 5:1 9:1 11:1 12:1 13:1 37:1 49:1 53:1 
0.06341479802493986 9:1 12:1 29:1 53:1 
1 14:1 
0.8995124487849657 15:1 57:1 59:1 
1 17:1 44:1 
1 18:1 42:1 44:1 56:1 
1 19:1 44:1 49:1 51:1 
1 4:1 20:1 
1 21:1 44:1 61:1 
1 17:1 24:1 49:1 51:1 
1 25:1 28:1 44:1 49:1 
1 27:1 49:1 
1 28:1 44:1 49:1 
1 29:1 
1 30:1 49:1 51:1 
1 31:1 
0.4335752503819748 32:1 36:1 
1 17:1 24:1 44:1 
1 3:1 30:1 34:1 49:1 51:1 
0.3924322741517796 4:1 6:1 16:1 21:1 25:1 28:1 33:1 49:1 
1 30:1 49:1 51:1 
0.5888280457296987 4:1 6:1 21:1 35:1 56:1 
1 36:1 
1 32:1 36:1 
1 37:1 
1 32:1 36:1 
1 36:1 
0.0966154723737313 3:1 39:1 49:1 51:1 
0.09234860946410033 2:1 5:1 7:1 13:1 37:1 40:1 49:1 
1 2:1 29:1 40:1 
0.0003725442541713039 32:1 36:1 41:1 
1 36:1 
1 9:1 42:1 
1 44:1 
0.01743692379192713 3:1 30:1 34:1 46:1 49:1 51:1 
1 47:1 
0.6263135823929158 2:1 11:1 30:1 
1 49:1 
0.2620490414738358 2:1 13:1 31:1 37:1 40:1 50:1 53:1 64:1 
1 3:1 39:1 49:1 51:1 
1 49:1 51:1 
1 23:1 44:1 48:1 
1 49:1 52:1 
0.9999999999999999 38:1 49:1 
1 29:1 49:1 
1 30:1 49:1 54:1 
0.3633543591446231 9:1 29:1 30:1 49:1 51:1 55:1 
1 38:1 49:1 
1 30:1 46:1 47:1 49:1 
1 17:1 44:1 47:1 49:1 57:1 
1 29:1 37:1 53:1 58:1 
1 29:1 44:1 49:1 57:1 59:1 
1 30:1 49:1 60:1 
1 44:1 61:1 
0.04405419561934991 39:1 
0.01624414365661897 30:1 34:1 46:1 47:1 49:1 
1 49:1 63:1 
1 64:1 
0.8590871922751687 30:1 34:1 39:1 47:1 
0.1645986628955439 2:1 11:1 47:1 
0.2995870242665047 4:1 20:1 23:1 44:1 48:1 
0.9124979342857267 1:1 20:1 21:1 29:1 31:1 64:1 65:1 67:1 
0.9658291988644317 3:1 30:1 34:1 46:1 47:1 49:1 51:1 
0.150785977494194 15:1 17:1 21:1 23:1 44:1 48:1 57:1 
1 66:1 
0.4133074109526203 37:1 44:1 49:1 62:1 
1 49:1 51:1 68:1 
1 14:1 
0.3927535909853061 4:1 6:1 16:1 21:1 25:1 28:1 45:1 49:1 52:1 
0.5884885552496737 44:1 49:1 62:1 
0.9981074856261195 44:1 49:1 62:1 
1 49:1 69:1 
1 49:1 69:1 
-1 29:1 36:1 64:1 
-1 30:1 34:1 49:1 
-0.3963299610967379 52:1 
-1 36:1 
-1 4:1 8:1 20:1 
-0.007868302787365425 49:1 
-1 61:1 
-1 23:1 44:1 
-1 3:1 9:1 29:1 47:1 49:1 51:1 
-0.9004358704903777 29:1 44:1 49:1 
-0.1489530399535124 31:1 49:1 51:1 
-0.02422147617905386 31:1 49:1 
-0.9124179467098179 30:1 49:1 
-0.9991587958548809 17:1 30:1 42:1 44:1 49:1 51:1 
-1 17:1 24:1 25:1 28:1 44:1 49:1 56:1 57:1 
-0.002824184050299439 29:1 
-0.2943621395501777 17:1 
-1 4:1 
-0.9995882597833047 19:1 21:1 
-1 28:1 44:1 49:1 57:1 
-1 15:1 30:1 44:1 49:1 57:1 
-0.0563957718260446 3:1 44:1 49:1 51:1 
-1 32:1 
-1 4:1 
-0.01022166975211654 3:1 37:1 49:1 51:1 
-0.08799182885722551 29:1 
-0.444957571090392 29:1 40:1 53:1 
-0.6938680749175815 49:1 51:1 
-1 9:1 44:1 
-1 29:1 
-1 36:1 
-0.561791766762031 20:1 21:1 65:1 66:1 
-0.9995323286265766 17:1 24:1 49:1 51:1 
-1 49:1 51:1 
-1 49:1 51:1 
-1 11:1 
-0.4143166208076177 44:1 
-0.7852519460364438 25:1 28:1 44:1 49:1 
-1 42:1 
-1 4:1 20:1 
-1 2:1 31:1 53:1 64:1 
-1 2:1 29:1 
-1 29:1 44:1 49:1 
-0.008652808014553214 31:1 
-1 3:1 9:1 29:1 47:1 49:1 51:1 
-0.0450103193958756 3:1 30:1 47:1 49:1 51:1 
-0.1101495949365449 3:1 49:1 51:1 
-0.8579753321073793 3:1 17:1 30:1 34:1 44:1 49:1 51:1 
-1 29:1 30:1 32:1 47:1 
-1 44:1 49:1 
-1 44:1 
-0.6670886226517334 49:1 
-1 37:1 
-0.4384613651702038 44:1 49:1 66:1 
-0.9927748725612335 31:1 
-0.9672839702834135 37:1 
-1 49:1 
-1 49:1 
-1 49:1 
-1 44:1 
-1 3:1 49:1 51:1 
-1 49:1 
-1 30:1 49:1 
-0.5116303740965003 30:1 49:1 
-0.5221866155799576 30:1 49:1 51:1 
-1 4:1 6:1 21:1 
-1 49:1 
-1 36:1 
-1 49:1 51:1 
-0.9984445295291215 44:1 
-0.8763215467866078 21:1 49:1 
-0.9966037734335942 52:1 
-0.9609490766926506 47:1 
-0.9190987830024271 
-1 
-1 
-1 
-1 49:1 
-1 2:1 13:1 29:1 37:1 40:1 47:1 
-1 
-1 29:1 
-1 
-1 
-1 30:1 34:1 49:1 
-1 
