svm_type c_svc
kernel_type linear
nr_class 2
total_sv 191
rho 1.00028
label 1 -1
nr_sv 93 98
SV
1 2:1 
1 4:1 31:1 59:1 75:1 
1 5:1 
1 2:1 
1 2:1 
1 5:1 7:1 13:1 21:1 22:1 50:1 53:1 
1 2:1 
1 3:1 32:1 40:1 50:1 70:1 
0.9994446646680988 5:1 7:1 13:1 21:1 22:1 40:1 50:1 53:1 
1 5:1 12:1 
0.8730898143244189 1:1 3:1 30:1 32:1 40:1 43:1 50:1 70:1 
1 13:1 
1 6:1 30:1 48:1 
1 6:1 30:1 48:1 
0.5 8:1 30:1 45:1 48:1 
1 15:1 30:1 48:1 
1 16:1 30:1 48:1 63:1 
1 18:1 48:1 
1 20:1 26:1 48:1 
1 5:1 21:1 
1 22:1 30:1 48:1 66:1 
1 23:1 48:1 70:1 
1 18:1 25:1 31:1 34:1 59:1 
1 26:1 29:1 31:1 36:1 48:1 52:1 59:1 
0.01978615102782563 5:1 17:1 20:1 22:1 26:1 29:1 30:1 31:1 36:1 48:1 52:1 59:1 
1 28:1 
1 29:1 31:1 36:1 48:1 52:1 59:1 
1 30:1 
1 31:1 
1 32:1 
1 18:1 34:1 48:1 
1 10:1 30:1 48:1 
1 31:1 36:1 
0.2325641316036726 5:1 17:1 20:1 22:1 26:1 29:1 31:1 36:1 48:1 52:1 59:1 
1 4:1 31:1 37:1 59:1 75:1 
1 5:1 22:1 38:1 
1 39:1 
1 40:1 
0.9991579439949684 33:1 39:1 
1 33:1 
1 42:1 65:1 
1 9:1 13:1 40:1 53:1 
1 2:1 
1 39:1 
1 30:1 45:1 48:1 
0.7496333011561057 5:1 19:1 21:1 24:1 30:1 47:1 48:1 
1 48:1 
0.5003981930460473 5:1 19:1 30:1 48:1 54:1 
1 4:1 31:1 37:1 59:1 75:1 
1 4:1 31:1 37:1 50:1 59:1 75:1 
1 4:1 31:1 37:1 59:1 75:1 
1 50:1 
0.0003570459371252222 2:1 11:1 30:1 
1 31:1 36:1 52:1 59:1 75:1 
1 5:1 21:1 24:1 30:1 48:1 51:1 
0.2499019118424473 30:1 48:1 54:1 68:1 
1 4:1 31:1 36:1 52:1 59:1 75:1 
0.001722785625815012 1:1 3:1 30:1 32:1 39:1 43:1 70:1 
1 5:1 7:1 21:1 22:1 40:1 50:1 
1 57:1 
1 31:1 41:1 
1 59:1 
0.3750282601836133 3:1 32:1 40:1 46:1 70:1 74:1 
1 31:1 36:1 
0.3803054144913779 30:1 31:1 48:1 60:1 69:1 
1 41:1 
0.619724304132746 30:1 48:1 60:1 69:1 
1 18:1 48:1 50:1 63:1 
1 49:1 
1 30:1 40:1 64:1 
1 16:1 48:1 
1 31:1 59:1 65:1 
1 30:1 48:1 66:1 
0.6352910462254296 48:1 67:1 
0.003965647583937523 30:1 48:1 50:1 61:1 65:1 
1 68:1 
1 49:1 50:1 
1 70:1 
0.5001604775468587 49:1 50:1 71:1 
1 11:1 30:1 50:1 
0.9450911673367759 5:1 21:1 24:1 48:1 51:1 
0.9961336110437953 31:1 50:1 61:1 65:1 
0.05442223900119991 18:1 22:1 24:1 30:1 48:1 51:1 56:1 63:1 72:1 
1 30:1 48:1 73:1 
1 32:1 40:1 70:1 74:1 
1 31:1 
0.5000000000000004 15:1 30:1 48:1 58:1 
0.1261127207792871 5:1 17:1 20:1 22:1 26:1 29:1 31:1 36:1 48:1 52:1 57:1 59:1 
0.4285714285714286 31:1 48:1 67:1 
0.5001442551854908 10:1 30:1 35:1 48:1 
0.9362972709391302 31:1 48:1 67:1 
1 31:1 59:1 75:1 
1 31:1 59:1 75:1 
-0.3955753683326417 70:1 
-0.4682661320878607 5:1 21:1 
-0.9995141766245256 4:1 59:1 
-1 4:1 31:1 59:1 75:1 
-1 4:1 31:1 59:1 75:1 
-1 24:1 48:1 
-1 30:1 31:1 48:1 50:1 59:1 75:1 
-1 4:1 31:1 37:1 59:1 75:1 
-0.1637163403556916 31:1 32:1 
-1 18:1 25:1 26:1 29:1 31:1 34:1 36:1 48:1 52:1 59:1 63:1 
-1 20:1 22:1 
-1 30:1 31:1 48:1 59:1 63:1 75:1 
-1 31:1 37:1 59:1 
-0.04109078820327128 5:1 
-0.9993070734878515 37:1 59:1 
-0.5693534745594564 30:1 40:1 
-0.02443897222080146 30:1 48:1 63:1 
-1 39:1 
-1 7:1 21:1 22:1 30:1 48:1 
-0.000470471526405272 18:1 25:1 31:1 34:1 59:1 
-1 31:1 65:1 
-1 11:1 48:1 
-1 26:1 29:1 31:1 36:1 48:1 52:1 59:1 
-1 5:1 21:1 
-1 2:1 
-0.02996058452034648 30:1 31:1 48:1 63:1 
-0.8266873109379477 30:1 31:1 48:1 50:1 
-1 31:1 36:1 
-1 39:1 
-1 4:1 31:1 36:1 52:1 59:1 75:1 
-0.658643535302731 40:1 50:1 
-0.2707306815835894 18:1 31:1 36:1 48:1 
-1 4:1 18:1 31:1 36:1 37:1 48:1 52:1 59:1 75:1 
-1 5:1 
-1 3:1 32:1 40:1 50:1 70:1 
-1 13:1 40:1 50:1 
-1 31:1 50:1 59:1 75:1 
-1 30:1 40:1 
-0.001412925723315084 48:1 57:1 
-1 5:1 21:1 
-1 2:1 13:1 53:1 
-0.9991084291367305 13:1 48:1 
-1 18:1 30:1 31:1 48:1 49:1 59:1 
-0.01929531591300382 40:1 
-1 40:1 
-1 50:1 65:1 
-1 16:1 48:1 
-1 5:1 
-0.734804479013185 30:1 
-0.8629701910104625 32:1 70:1 
-1 50:1 
-1 31:1 48:1 
-1 40:1 
-1 5:1 21:1 24:1 30:1 48:1 
-0.4485190249618859 31:1 
-0.1671118949623256 5:1 22:1 
-0.1687529937659958 57:1 
-0.3792636451384369 31:1 59:1 
-1 39:1 
-1 30:1 
-0.8910553388453293 18:1 32:1 34:1 
-0.005665575636635434 30:1 32:1 70:1 
-1 2:1 
-1 5:1 22:1 
-0.7517900362087599 30:1 
-0.2072835745474459 5:1 22:1 30:1 48:1 
-0.8456821283663286 22:1 30:1 48:1 
-0.2122583855733765 5:1 22:1 48:1 
-1 5:1 
-0.3263271963420891 32:1 
-0.9558758650733435 57:1 
-1 70:1 
-1 31:1 
-0.4767988201240974 5:1 21:1 30:1 48:1 
-0.7488851855752363 21:1 24:1 30:1 48:1 
-1 3:1 32:1 40:1 50:1 70:1 
-1 31:1 
-1 31:1 36:1 
-0.8874847840587796 30:1 50:1 
-0.9852846201455708 48:1 70:1 
-1 5:1 30:1 48:1 
-1 5:1 7:1 13:1 21:1 22:1 40:1 50:1 53:1 
-1 48:1 
-1 48:1 
-0.9998136920760269 50:1 
-1 48:1 
-1 30:1 48:1 
-1 30:1 48:1 
-1 31:1 
-1 
-1 30:1 48:1 
-0.9089735074176136 48:1 
-0.844721906107688 30:1 48:1 
-1 
-1 23:1 
-1 
-1 
-0.8504093607808139 
