svm_type c_svc
kernel_type linear
nr_class 2
total_sv 185
rho 1.00036
label 1 -1
nr_sv 97 88
SV
0.7559220996209066 2:1 
1 3:1 34:1 65:1 
1 4:1 
1 2:1 
0.9919699710546785 2:1 31:1 
1 4:1 5:1 23:1 31:1 35:1 46:1 66:1 
1 2:1 
1 4:1 10:1 
0.3108340715933719 12:1 13:1 31:1 
0.9598881806680915 12:1 13:1 31:1 
0.0007743200039729317 4:1 9:1 10:1 
1 4:1 10:1 
0.2692642332846169 6:1 31:1 38:1 
1 13:1 31:1 
1 13:1 
1 13:1 
0.5837068055967035 13:1 14:1 31:1 54:1 
1 6:1 13:1 31:1 
0.8083463293267554 5:1 13:1 31:1 35:1 
0.5418053906494623 7:1 13:1 31:1 39:1 
0.9578465763015911 13:1 14:1 31:1 54:1 
1 15:1 
0.2702982682210747 13:1 16:1 56:1 
1 19:1 44:1 
1 4:1 21:1 44:1 
1 4:1 22:1 
0.01502648247938397 23:1 31:1 44:1 59:1 
1 24:1 44:1 59:1 60:1 64:1 
1 26:1 34:1 58:1 65:1 
1 3:1 4:1 27:1 30:1 34:1 37:1 40:1 44:1 48:1 58:1 64:1 65:1 
1 29:1 
0.1790012161957769 3:1 30:1 34:1 37:1 40:1 44:1 48:1 58:1 65:1 
1 31:1 
0.005616142982128906 33:1 65:1 
1 34:1 
0.9427688139933995 13:1 28:1 65:1 
1 26:1 34:1 44:1 
1 37:1 65:1 
0.2857845059257071 3:1 4:1 17:1 21:1 23:1 27:1 30:1 32:1 34:1 36:1 37:1 40:1 48:1 58:1 65:1 66:1 
0.6273075217291859 3:1 33:1 34:1 58:1 65:1 
1 4:1 20:1 23:1 66:1 
1 38:1 
0.5514230915705176 35:1 38:1 
1 39:1 
0.9099586648477352 35:1 38:1 
1 38:1 
1 41:1 
0.7289544434595611 5:1 7:1 8:1 39:1 
0.2522799252263517 2:1 5:1 31:1 
1 38:1 
1 44:1 
0.5090421669858755 3:1 34:1 45:1 46:1 58:1 65:1 
0.6170099872779022 3:1 34:1 45:1 58:1 65:1 
1 46:1 
1 3:1 34:1 37:1 48:1 58:1 65:1 
0.2709321268104104 13:1 61:1 
1 50:1 
1 3:1 34:1 37:1 48:1 58:1 65:1 
1 4:1 25:1 44:1 52:1 
1 4:1 7:1 23:1 31:1 39:1 46:1 66:1 
1 53:1 
1 40:1 65:1 
1 40:1 
0.1347425962468985 22:1 31:1 42:1 47:1 
0.1876057256152892 15:1 54:1 
1 31:1 
0.2688114937817711 29:1 31:1 47:1 65:1 
1 40:1 51:1 
1 20:1 31:1 
0.9984024762258602 10:1 31:1 44:1 46:1 56:1 
1 50:1 
1 31:1 39:1 54:1 57:1 
1 16:1 19:1 31:1 44:1 56:1 64:1 
1 58:1 65:1 
0.9850367229674876 31:1 44:1 59:1 
1 4:1 20:1 23:1 66:1 
1 44:1 60:1 64:1 
0.006117887285922344 45:1 46:1 
1 61:1 
1 46:1 50:1 
1 24:1 60:1 
0.500100387580256 46:1 50:1 62:1 
1 11:1 31:1 46:1 
0.3084562195556994 1:1 20:1 60:1 
0.8676018550953013 45:1 46:1 65:1 
0.2310049524574243 4:1 19:1 23:1 25:1 44:1 52:1 55:1 56:1 66:1 
0.383581387106006 4:1 20:1 23:1 31:1 66:1 
1 4:1 63:1 
0.3271717021989939 28:1 47:1 
0.04221683888714106 33:1 39:1 44:1 64:1 65:1 
1 65:1 
0.08326179881296675 13:1 15:1 
0.2853088303219897 3:1 4:1 17:1 18:1 21:1 23:1 27:1 30:1 32:1 34:1 37:1 40:1 48:1 53:1 58:1 65:1 66:1 
0.394268906029086 33:1 44:1 64:1 65:1 
0.9303753670446923 33:1 44:1 64:1 65:1 
1 3:1 34:1 58:1 65:1 
1 3:1 34:1 58:1 65:1 
-1 24:1 31:1 38:1 60:1 
-0.2849976752557986 53:1 
-1 38:1 
-1 13:1 44:1 64:1 
-0.9973883913647316 58:1 
-1 3:1 34:1 40:1 
-1 4:1 23:1 66:1 
-1 4:1 25:1 44:1 
-0.4952116319858871 3:1 34:1 
-1 31:1 
-1 3:1 13:1 31:1 34:1 46:1 50:1 58:1 65:1 
-1 31:1 44:1 
-0.4884926185577821 60:1 
-0.4375846006014765 4:1 21:1 23:1 66:1 
-1 13:1 44:1 
-1 3:1 34:1 65:1 
-0.008100737876637032 3:1 34:1 58:1 65:1 
-1 13:1 44:1 46:1 65:1 
-1 3:1 4:1 20:1 26:1 27:1 30:1 34:1 37:1 40:1 44:1 48:1 56:1 58:1 64:1 65:1 
-1 31:1 
-1 31:1 
-1 13:1 
-0.1374940044547561 65:1 
-1 13:1 19:1 32:1 34:1 40:1 44:1 56:1 58:1 65:1 
-0.4993334790326813 19:1 44:1 56:1 64:1 65:1 
-0.7322068970687095 19:1 44:1 64:1 65:1 
-0.8198986781350432 60:1 
-1 4:1 13:1 
-1 35:1 
-0.9992386479419809 31:1 39:1 
-1 20:1 
-0.3779946828967972 39:1 
-1 31:1 
-1 31:1 
-1 31:1 
-1 31:1 
-1 5:1 14:1 31:1 54:1 
-0.1349544239536635 44:1 64:1 
-1 31:1 
-1 38:1 
-0.4408501711234789 4:1 21:1 23:1 63:1 66:1 
-1 26:1 34:1 58:1 65:1 
-1 65:1 
-0.7485862946330468 4:1 
-1 10:1 
-1 11:1 
-1 3:1 4:1 27:1 30:1 34:1 37:1 40:1 44:1 48:1 58:1 64:1 65:1 
-1 4:1 
-1 4:1 
-1 24:1 54:1 60:1 
-0.3218476098123783 23:1 
-0.7891594703654523 5:1 
-1 2:1 31:1 
-0.4620752143301172 31:1 44:1 65:1 
-1 3:1 34:1 58:1 65:1 
-1 13:1 31:1 46:1 65:1 
-0.5000000000000002 46:1 
-1 44:1 50:1 65:1 
-1 2:1 31:1 35:1 46:1 
-1 3:1 34:1 58:1 65:1 
-1 39:1 
-0.5592609335551596 4:1 44:1 63:1 
-0.9356288053451449 39:1 
-1 44:1 64:1 
-1 4:1 23:1 66:1 
-1 65:1 
-1 46:1 
-0.9985468587278526 46:1 
-1 37:1 65:1 
-1 4:1 21:1 23:1 66:1 
-0.1155109949366112 34:1 58:1 65:1 
-1 13:1 
-1 38:1 
-1 3:1 34:1 37:1 48:1 58:1 65:1 
-0.3875024862148912 44:1 
-1 4:1 23:1 66:1 
-1 53:1 
-0.5021287168721118 34:1 
-0.7251403079479721 
-1 
-1 
-1 5:1 7:1 31:1 39:1 46:1 
-1 
-1 31:1 
-1 
-1 4:1 
-0.382437794914899 34:1 46:1 58:1 
-0.9982543551128855 
